digraph Tree {
node [shape=box, fontname="helvetica"] ;
edge [fontname="helvetica"] ;
0 [label="x[8] <= 9.5\ngini = 0.895\nsamples = 3341\nvalue = [1.0, 1.0, 12.0, 44.0, 83.0, 211.0, 307.0, 469.0, 547.0\n495.0, 394.0, 216.0, 172.0, 100.0, 82.0, 54.0, 50.0\n30.0, 25.0, 22.0, 11.0, 3.0, 5.0, 2.0, 1.0, 1.0, 2.0\n1.0]"] ;
1 [label="x[8] <= 8.5\ngini = 0.762\nsamples = 1675\nvalue = [1.0, 1.0, 12.0, 44.0, 83.0, 211.0, 307.0, 469.0, 547.0\n0.0, 0.0, 0.0, 0.0, 0.0, 0.0, 0.0, 0.0, 0.0, 0.0\n0.0, 0.0, 0.0, 0.0, 0.0, 0.0, 0.0, 0.0, 0.0]"] ;
0 -> 1 [labeldistance=2.5, labelangle=45, headlabel="True"] ;
2 [label="x[8] <= 7.5\ngini = 0.711\nsamples = 1128\nvalue = [1, 1, 12, 44, 83, 211, 307, 469, 0, 0, 0, 0, 0\n0, 0, 0, 0, 0, 0, 0, 0, 0, 0, 0, 0, 0, 0\n0]"] ;
1 -> 2 ;
3 [label="x[8] <= 6.5\ngini = 0.66\nsamples = 659\nvalue = [1.0, 1.0, 12.0, 44.0, 83.0, 211.0, 307.0, 0.0, 0.0\n0.0, 0.0, 0.0, 0.0, 0.0, 0.0, 0.0, 0.0, 0.0, 0.0\n0.0, 0.0, 0.0, 0.0, 0.0, 0.0, 0.0, 0.0, 0.0]"] ;
2 -> 3 ;
4 [label="x[8] <= 5.5\ngini = 0.568\nsamples = 352\nvalue = [1.0, 1.0, 12.0, 44.0, 83.0, 211.0, 0.0, 0.0, 0.0\n0.0, 0.0, 0.0, 0.0, 0.0, 0.0, 0.0, 0.0, 0.0, 0.0\n0.0, 0.0, 0.0, 0.0, 0.0, 0.0, 0.0, 0.0, 0.0]"] ;
3 -> 4 ;
5 [label="x[8] <= 4.5\ngini = 0.549\nsamples = 141\nvalue = [1, 1, 12, 44, 83, 0, 0, 0, 0, 0, 0, 0, 0, 0\n0, 0, 0, 0, 0, 0, 0, 0, 0, 0, 0, 0, 0, 0]"] ;
4 -> 5 ;
6 [label="x[8] <= 3.5\ngini = 0.381\nsamples = 58\nvalue = [1, 1, 12, 44, 0, 0, 0, 0, 0, 0, 0, 0, 0, 0\n0, 0, 0, 0, 0, 0, 0, 0, 0, 0, 0, 0, 0, 0]"] ;
5 -> 6 ;
7 [label="x[3] <= 0.027\ngini = 0.255\nsamples = 14\nvalue = [1, 1, 12, 0, 0, 0, 0, 0, 0, 0, 0, 0, 0, 0\n0, 0, 0, 0, 0, 0, 0, 0, 0, 0, 0, 0, 0, 0]"] ;
6 -> 7 ;
8 [label="gini = 0.5\nsamples = 2\nvalue = [1, 1, 0, 0, 0, 0, 0, 0, 0, 0, 0, 0, 0, 0\n0, 0, 0, 0, 0, 0, 0, 0, 0, 0, 0, 0, 0, 0]"] ;
7 -> 8 ;
9 [label="gini = 0.0\nsamples = 12\nvalue = [0, 0, 12, 0, 0, 0, 0, 0, 0, 0, 0, 0, 0, 0\n0, 0, 0, 0, 0, 0, 0, 0, 0, 0, 0, 0, 0, 0]"] ;
7 -> 9 ;
10 [label="gini = 0.0\nsamples = 44\nvalue = [0, 0, 0, 44, 0, 0, 0, 0, 0, 0, 0, 0, 0, 0\n0, 0, 0, 0, 0, 0, 0, 0, 0, 0, 0, 0, 0, 0]"] ;
6 -> 10 ;
11 [label="gini = 0.0\nsamples = 83\nvalue = [0, 0, 0, 0, 83, 0, 0, 0, 0, 0, 0, 0, 0, 0\n0, 0, 0, 0, 0, 0, 0, 0, 0, 0, 0, 0, 0, 0]"] ;
5 -> 11 ;
12 [label="gini = 0.0\nsamples = 211\nvalue = [0, 0, 0, 0, 0, 211, 0, 0, 0, 0, 0, 0, 0, 0\n0, 0, 0, 0, 0, 0, 0, 0, 0, 0, 0, 0, 0, 0]"] ;
4 -> 12 ;
13 [label="gini = 0.0\nsamples = 307\nvalue = [0, 0, 0, 0, 0, 0, 307, 0, 0, 0, 0, 0, 0, 0\n0, 0, 0, 0, 0, 0, 0, 0, 0, 0, 0, 0, 0, 0]"] ;
3 -> 13 ;
14 [label="gini = 0.0\nsamples = 469\nvalue = [0, 0, 0, 0, 0, 0, 0, 469, 0, 0, 0, 0, 0, 0\n0, 0, 0, 0, 0, 0, 0, 0, 0, 0, 0, 0, 0, 0]"] ;
2 -> 14 ;
15 [label="gini = 0.0\nsamples = 547\nvalue = [0, 0, 0, 0, 0, 0, 0, 0, 547, 0, 0, 0, 0, 0\n0, 0, 0, 0, 0, 0, 0, 0, 0, 0, 0, 0, 0, 0]"] ;
1 -> 15 ;
16 [label="x[8] <= 10.5\ngini = 0.82\nsamples = 1666\nvalue = [0.0, 0.0, 0.0, 0.0, 0.0, 0.0, 0.0, 0.0, 0.0, 495.0\n394.0, 216.0, 172.0, 100.0, 82.0, 54.0, 50.0, 30.0\n25.0, 22.0, 11.0, 3.0, 5.0, 2.0, 1.0, 1.0, 2.0, 1.0]"] ;
0 -> 16 [labeldistance=2.5, labelangle=-45, headlabel="False"] ;
17 [label="gini = 0.0\nsamples = 495\nvalue = [0, 0, 0, 0, 0, 0, 0, 0, 0, 495, 0, 0, 0, 0\n0, 0, 0, 0, 0, 0, 0, 0, 0, 0, 0, 0, 0, 0]"] ;
16 -> 17 ;
18 [label="x[8] <= 11.5\ngini = 0.813\nsamples = 1171\nvalue = [0.0, 0.0, 0.0, 0.0, 0.0, 0.0, 0.0, 0.0, 0.0, 0.0\n394.0, 216.0, 172.0, 100.0, 82.0, 54.0, 50.0, 30.0\n25.0, 22.0, 11.0, 3.0, 5.0, 2.0, 1.0, 1.0, 2.0, 1.0]"] ;
16 -> 18 ;
19 [label="gini = 0.0\nsamples = 394\nvalue = [0, 0, 0, 0, 0, 0, 0, 0, 0, 0, 394, 0, 0, 0\n0, 0, 0, 0, 0, 0, 0, 0, 0, 0, 0, 0, 0, 0]"] ;
18 -> 19 ;
20 [label="x[8] <= 12.5\ngini = 0.833\nsamples = 777\nvalue = [0, 0, 0, 0, 0, 0, 0, 0, 0, 0, 0, 216, 172\n100, 82, 54, 50, 30, 25, 22, 11, 3, 5, 2, 1, 1\n2, 1]"] ;
18 -> 20 ;
21 [label="gini = 0.0\nsamples = 216\nvalue = [0, 0, 0, 0, 0, 0, 0, 0, 0, 0, 0, 216, 0, 0\n0, 0, 0, 0, 0, 0, 0, 0, 0, 0, 0, 0, 0, 0]"] ;
20 -> 21 ;
22 [label="x[8] <= 13.5\ngini = 0.829\nsamples = 561\nvalue = [0.0, 0.0, 0.0, 0.0, 0.0, 0.0, 0.0, 0.0, 0.0, 0.0\n0.0, 0.0, 172.0, 100.0, 82.0, 54.0, 50.0, 30.0, 25.0\n22.0, 11.0, 3.0, 5.0, 2.0, 1.0, 1.0, 2.0, 1.0]"] ;
20 -> 22 ;
23 [label="gini = 0.0\nsamples = 172\nvalue = [0, 0, 0, 0, 0, 0, 0, 0, 0, 0, 0, 0, 172, 0\n0, 0, 0, 0, 0, 0, 0, 0, 0, 0, 0, 0, 0, 0]"] ;
22 -> 23 ;
24 [label="x[8] <= 14.5\ngini = 0.839\nsamples = 389\nvalue = [0.0, 0.0, 0.0, 0.0, 0.0, 0.0, 0.0, 0.0, 0.0, 0.0\n0.0, 0.0, 0.0, 100.0, 82.0, 54.0, 50.0, 30.0, 25.0\n22.0, 11.0, 3.0, 5.0, 2.0, 1.0, 1.0, 2.0, 1.0]"] ;
22 -> 24 ;
25 [label="gini = 0.0\nsamples = 100\nvalue = [0, 0, 0, 0, 0, 0, 0, 0, 0, 0, 0, 0, 0, 100\n0, 0, 0, 0, 0, 0, 0, 0, 0, 0, 0, 0, 0, 0]"] ;
24 -> 25 ;
26 [label="x[8] <= 15.5\ngini = 0.829\nsamples = 289\nvalue = [0.0, 0.0, 0.0, 0.0, 0.0, 0.0, 0.0, 0.0, 0.0, 0.0\n0.0, 0.0, 0.0, 0.0, 82.0, 54.0, 50.0, 30.0, 25.0\n22.0, 11.0, 3.0, 5.0, 2.0, 1.0, 1.0, 2.0, 1.0]"] ;
24 -> 26 ;
27 [label="gini = 0.0\nsamples = 82\nvalue = [0, 0, 0, 0, 0, 0, 0, 0, 0, 0, 0, 0, 0, 0\n82, 0, 0, 0, 0, 0, 0, 0, 0, 0, 0, 0, 0, 0]"] ;
26 -> 27 ;
28 [label="x[8] <= 16.5\ngini = 0.823\nsamples = 207\nvalue = [0, 0, 0, 0, 0, 0, 0, 0, 0, 0, 0, 0, 0, 0\n0, 54, 50, 30, 25, 22, 11, 3, 5, 2, 1, 1, 2\n1]"] ;
26 -> 28 ;
29 [label="gini = 0.0\nsamples = 54\nvalue = [0, 0, 0, 0, 0, 0, 0, 0, 0, 0, 0, 0, 0, 0\n0, 54, 0, 0, 0, 0, 0, 0, 0, 0, 0, 0, 0, 0]"] ;
28 -> 29 ;
30 [label="gini = 0.8\nsamples = 153\nvalue = [0, 0, 0, 0, 0, 0, 0, 0, 0, 0, 0, 0, 0, 0\n0, 0, 50, 30, 25, 22, 11, 3, 5, 2, 1, 1, 2\n1]"] ;
28 -> 30 ;
}